solver_type L1R_LR
nr_class 2
label 0 1
nr_feature 3499
bias 0.000000000000000
w
-2.701314734623590 
23.47862582346740 
-4.335638118135321 
5.813640772140906 
8.246671719667006 
-1.873383657017024 
-1.293907352768738 
27.41536798257793 
-3.579387697288406 
1.049592012990764 
5.549168520851727 
-3.579425272681734 
2.299844712701006 
-1.863538988821228 
2.855988447602959 
-0.5605908037995042 
16.99390958186043 
0.5711584412448251 
9.883415995201027 
7.950927469706850 
-0.3407473508443780 
-3.673510733588451 
15.89552343229990 
1.151327385542105 
-1.346747731754934 
0.9141943316279668 
6.530026859422150 
-3.292720456864170 
0.3920471495866868 
-1.250567951629359 
-2.617284387508607 
-1.184052079122568 
0.1410775097730230 
-0.3584132760483939 
4.218360686953540 
-2.440604432091135 
2.750820981459994 
1.795856960565448 
0.4844942948676826 
1.241325460252831 
16.23071638558985 
0.9307104430855367 
4.987521881798480 
-2.064353367870627 
-1.326457467068440 
6.953237932310573 
-0.5241659990426418 
0.6282371750029518 
5.221774831875839 
0.3508126402444478 
2.947044936130114 
-0.8949348278674266 
-0.8973109823891880 
-2.231377513087605 
1.222547725323867 
-1.207324560951094 
-2.031018171938265 
-2.917645189900182 
-1.219936519510775 
-2.699259819888042 
-3.017211235843834 
-0.9533204105604501 
-1.668778895279719 
0.2586906212369542 
5.116978009059103 
-1.093980219644842 
-1.832673834752061 
-3.182528931389285 
7.472057650659357 
0.7341534626833142 
-3.504431177055748 
-1.278188062818063 
2.251517797699381 
-0.5964691430899324 
-1.275965252592521 
-2.225137647174152 
7.746962099820453 
-5.121509564868696 
0.6401028374109327 
-1.012644204311355 
-1.238680697160138 
0.1004708784132144 
-2.936630047355188 
8.079403268123892 
-0.8100762747513629 
-2.896090218805215 
0.9210599112739005 
5.851174944660859 
21.14692665002801 
-2.611495370877869 
-2.428789543886820 
0.2972585240995503 
-2.526871291662665 
-1.804496907268238 
0.2930411838271866 
7.700288405195376 
-1.471941804277243 
-0.3342052922264214 
-4.615456317145995 
-0.8200608780868772 
-2.835186201892312 
0.1659614009298974 
-0.03171522666343742 
-0.5689806173908893 
4.327908577318372 
2.912927006225524 
-1.849281161888163 
5.623283535727672 
10.88547068165777 
-2.340405769332176 
0.3704527703264602 
13.32406980659556 
13.06942520385752 
1.869734423983364 
-0.8202407028201645 
-3.765406041773558 
5.639424471977522 
1.351798993504629 
-2.696342447430458 
-4.170287319142642 
-2.351758345759830 
3.164342587598713 
-1.241253698682634 
-1.953530630722504 
0.8310107963713987 
0.5627865312425653 
-1.911105866645745 
-2.003072445981577 
-1.298242491200756 
-0.8005715556710757 
6.746147609569319 
-2.537125590158833 
0.8160371364961715 
27.53165619301973 
3.633600242583009 
-1.438072765731264 
1.894469762066334 
-1.643284044223198 
-3.105251249050305 
0.1183630338834680 
2.588149908534451 
14.21786559635974 
-0.6580881431683061 
0.3780376100964048 
-2.782070402124073 
-1.440008277448359 
-1.180888996827767 
-2.684064688777275 
3.880621632642661 
2.451073673523381 
0.8688282091148538 
-3.376968440940570 
-2.950811059354302 
-2.830294796951536 
3.293848530845230 
28.95258006579286 
10.04968731149496 
3.136032094783339 
-3.283668390724444 
-0.4128264136639749 
0.2167465293145045 
6.646084823988941 
-2.713355240980830 
-1.585529488334553 
3.082936045028974 
-0.7479929709358604 
-1.806857834910789 
2.787981343667433 
-2.236243004526344 
-1.318674273862518 
-1.095074957615219 
11.45020452458511 
1.507099167929975 
0.2384440836091773 
-0.8156752564792796 
-0.6380979192486607 
-2.235623754533632 
-0.4655202263839259 
4.796570884814893 
-0.6747056702514307 
-0.4317508116858769 
-2.233833974619582 
3.173715622141771 
5.446553563204637 
9.385561656697519 
-0.9537780204816562 
-1.496001866148953 
-1.708445357046637 
-0.8946277378472292 
0.2456553456811880 
2.579213987793183 
-3.523850468772019 
-3.434703288573308 
1.235834982531296 
-4.088373883675295 
0.3592176988547522 
-2.927850092334627 
3.370512160013479 
-1.972860153262656 
-1.405759766923752 
12.67118890073254 
11.83581661905745 
25.08400991483580 
4.702842911983515 
10.03282554683406 
20.98691271378100 
22.08151364187269 
0.1596234749458735 
-3.651000941674536 
2.562979844585660 
9.640614688636248 
34.89289063734114 
1.399121472060796 
1.129419290637316 
-3.572298359595228 
-1.365100739652356 
1.520999240457695 
0.5317453339605822 
-0.4227770579092160 
-2.150315086081624 
4.238581981266793 
-1.845905101167223 
2.033681960741463 
-1.654768370568636 
9.796184357387345 
-1.256802216614912 
5.336604524437968 
1.120447875584871 
-2.717319500104852 
0.3434749764182424 
0.4996349412245902 
7.579205878332195 
4.558241911020858 
5.818216143632472 
4.785687191831064 
1.620355747679415 
-0.6321778761571117 
-1.062753773763216 
-0.5899484380606743 
5.997500804913949 
2.669412930019554 
0.8917080500569222 
7.993598733815909 
-1.731290804943507 
-5.994935929685944 
1.711114016663485 
3.483920901527331 
5.768754388600207 
1.004511683592722 
4.974324324927848 
2.703206641739546 
1.930483794862077 
-1.078365092280489 
6.122628882044207 
-0.3319556963173534 
-2.526356823482345 
4.701702784554181 
-2.411667785858651 
3.155970162499698 
0.1959545910463174 
-0.2429697371076244 
2.657569139888982 
-1.822181155493689 
5.765167707576115 
0.4079163978127178 
4.583926650840437 
4.240336101097532 
-1.775946069804308 
2.045779352689875 
3.160799617593995 
18.41449967791042 
-1.343599888281948 
-2.553202588976143 
14.55782978836412 
19.13486469665570 
1.385682624114630 
-5.902285470318751 
-2.236838351483832 
2.609756435814440 
-0.5335086347151085 
-0.1777635908426999 
0.6747441025343062 
-1.829053253310861 
0.6858939690908186 
-0.03131627304870892 
4.718422851661378 
3.056135767690540 
-2.404446158239592 
1.725939548409921 
15.84650040233519 
12.71140087543155 
1.014190927270781 
18.42048777000959 
-2.831409824987314 
-0.2115298491087740 
6.865603024932725 
0.3040345039088511 
-1.547114851636864 
-0.2284947843796881 
0.1819125038799837 
1.453441678457821 
-0.5329378629716619 
3.663731929864853 
-3.669838299135207 
-1.492827733840143 
-2.060235667697128 
1.764622463672171 
0.3988848169499041 
2.498935526223321 
34.81015201406793 
-1.684430537989323 
4.170477505457808 
-2.955629691542750 
3.198897017172080 
1.721000525522324 
0.1868943136587500 
-0.1330357219069049 
-0.5375698716111925 
-0.04703813218060002 
-3.835613708375129 
-3.596367156766655 
8.693522875728950 
-0.3124922853936320 
-1.082362790750751 
-2.016250604922764 
0.8028076084384725 
-3.012905271385979 
2.785436785356632 
2.695954819231296 
-0.5768935775712787 
5.760354368123828 
8.669681450326548 
-0.05296191073224810 
-0.6656372140064620 
1.703198373696227 
8.690170137186533 
23.98189077872543 
3.329483687102319 
0.8196492717460250 
-1.075596298954877 
-0.8376230980207255 
-0.6872777401726758 
1.027856239497968 
0.5709349418406535 
7.024862617249518 
0.07856991100909970 
1.723008802387186 
-0.4905990933072022 
-1.554423576168452 
-2.371193169961551 
-0.9658124132776217 
-2.514222194165960 
9.810739715829380 
-0.9633932417638632 
0.03361331340588728 
0.3362782784975325 
2.124629504560498 
8.745843579152949 
4.352497079972486 
-0.9825946634781453 
-5.261041746835896 
-1.158665114630590 
-3.820668786742532 
0.4611699891626565 
-1.281913903266636 
-0.7731352242109482 
12.01773595965184 
1.644097463734451 
-1.413644806788302 
-0.6079281354695912 
4.091399947315601 
5.199241551415974 
-2.724176880468397 
5.573801849659764 
6.240047935309995 
0.3644148910323442 
7.661612612663938 
-7.977104853245876 
6.322039540698650 
7.012777373334798 
-0.7335603363806140 
-4.772581875962239 
3.672936325556995 
3.457471039851903 
2.471745403122778 
1.013015515546293 
-0.5119253136307849 
11.06116824936624 
0.3754948761435883 
-1.428540787985736 
12.82378079121160 
-0.1094006513659937 
6.379429776421617 
2.331731617359265 
2.488798772364669 
-5.587986820180956 
0.1966926096619090 
14.33177394334590 
8.436385611779949 
2.223175675591675 
1.790693033300769 
27.42715497746911 
1.801742840579623 
-2.293771387984282 
16.40388477402829 
47.43079060246397 
8.455978887142840 
-1.005837724596503 
0.9223439340716193 
3.498482028371808 
-3.501422727286880 
1.292745929857774 
3.292664392082523 
8.393421958165852 
-0.9344222903470132 
-1.543481574872231 
-4.179151194362628 
-1.731913711126217 
-0.8655679225787358 
1.756400541909313 
-2.382213163012082 
3.737498858783233 
6.344953518228154 
-0.5063504181231561 
4.413741974980190 
16.36625324641897 
8.558732268422299 
-0.06527993621880349 
-2.435670783785230 
-2.357553288141410 
-1.874750167269197 
-0.8804610470185782 
-0.1747732309043742 
2.608280830792214 
-1.725213641526570 
-0.7978226440963837 
-2.574823814329741 
0.02427888705051229 
6.365902845650935 
-1.951933927080061 
2.131546590823611 
-2.263841452487501 
-3.163540839866258 
-0.9012288551045183 
6.081921154417917 
4.013256407196764 
41.49090173564338 
2.212220542097377 
-4.707768290767235 
1.034089590188418 
0.4179011819698284 
-2.195140717579583 
5.437761785868004 
9.560575119362426 
-0.8933423478977482 
2.135722671599388 
-3.139102671354523 
-1.786720647012970 
-1.318417407202914 
-3.874866640377811 
-0.3022629360124782 
-0.02552313366531302 
-1.072408957855417 
1.499729241175993 
1.668216994982178 
13.09768040248586 
-0.9262976450133874 
-4.193342842320126 
2.478329621825905 
-2.104558214579043 
2.536817087470720 
0.4217126902974602 
1.943190892521536 
-2.200661226403626 
1.193722525420666 
-2.205583106057047 
-1.266656877001827 
5.414117894515091 
-3.990547699160028 
0.1273082977721617 
0.7466732513975088 
-0.8776422000991866 
-0.7210669022431664 
0.5460611206490845 
7.454678987925867 
-1.312316431760024 
-0.9225268430734767 
-0.7064721341809966 
-0.7488355106903108 
-1.448654740049686 
-2.022555747636314 
1.922963568120416 
8.668329422619633 
0.1704396250304408 
-0.1051785476213564 
-3.571844552436495 
-0.06368800930794252 
-1.229626189541308 
0.4086902072340820 
0.9384405777513760 
3.640438526756002 
5.338543060367079 
-0.7650106902573048 
0.8244713807636407 
0.8744073888270446 
-0.4316036864097527 
-1.529259007814776 
2.763118320181294 
-1.925798683619997 
-2.345058740877085 
-1.518070537058716 
2.501112645705732 
-0.2706955227986171 
-2.984734560084555 
2.849159974636156 
3.719706864127363 
11.24308978805073 
2.913116697053529 
6.848218351567927 
14.96975874853041 
2.484756854355091 
2.224961953437033 
0.1196433296034722 
3.017615862787446 
0.1262929503958486 
-1.200232719106641 
0.3549728803467070 
-1.786056321674916 
26.60301019563908 
-1.933797090195314 
36.43923797315816 
26.11766687344142 
0.3433853868011105 
2.379652202781303 
30.20548422712537 
-4.305259587058107 
10.75317487487308 
17.52892093247656 
-2.696220210518610 
23.98684956059810 
42.56892006708749 
-4.657090384021321 
1.742255579530337 
24.64542909143529 
-7.283753882334463 
-5.006242385794757 
-4.001430729371857 
-5.130215514532809 
-4.175794510426401 
-12.12261013574110 
-0.7091322856120094 
-3.860400359774055 
7.046971269460491 
53.22954239834449 
-1.915416562164321 
49.96010553307791 
-0.5660923071680535 
-2.337396654301026 
-3.626618826833276 
-9.141571641504902 
-3.247026213520977 
-4.970623929936330 
-5.791575409393230 
-5.076149800701516 
-6.673677816027371 
-5.056923206553194 
-7.594897636619474 
-6.222374500865509 
-3.680727264883536 
-11.61860380288873 
-3.990821884298290 
-7.135810776346172 
-1.203919114540553 
-5.762043657350637 
0.2003373593008007 
-0.8099654836485881 
1.956957321820589 
11.12416480107458 
-0.4358846379425525 
-1.264260700763203 
2.787768208705916 
-2.797123243258707 
-2.827366303674417 
-5.656079129107350 
-2.263493018275740 
3.017107193174935 
-5.673814910428501 
-3.342408700954616 
-4.535365871700519 
-13.15569035392100 
-2.734692167556500 
-3.291370437775799 
-2.807306662536875 
-8.611413100448258 
1.531857731650482 
-6.482763732198412 
-11.54976405857814 
-7.650325068927834 
-4.213416496865132 
-5.016655481702429 
-2.814797149151526 
-12.08245853742849 
-7.485934792739965 
-1.245491327021519 
-1.411466115720180 
-0.9074022228041174 
-1.819005086127999 
-1.021272675883039 
-1.115692708492328 
0.3844443754899793 
-3.220222397841672 
-3.533105279133551 
-4.048306037108357 
-1.410907472894422 
-6.791485541226409 
-0.1601809765341140 
15.71243803374438 
1.040843900114380 
7.756147968003911 
3.686339108666603 
0.8689414299323672 
-0.2281813272022248 
2.011171312738965 
-2.266606311775353 
0.004515920114140141 
1.078068517276843 
-0.3023163635420603 
27.49474903071188 
-1.789120241727169 
-1.995508995485747 
4.507295331396615 
16.29470677276588 
1.120135481695645 
2.562442447853908 
4.021288447724213 
13.82248116969301 
-8.550107463703862 
-0.1212022889896831 
0.6350130450255582 
6.253198671500828 
-0.01392273619292688 
-0.009882570572003027 
-1.221494227002849 
3.481025586673581 
21.40104125304459 
-2.148942283316900 
-1.308139163408885 
-1.393299145255143 
1.479721737852008 
3.947825812598446 
1.792460674471329 
13.56977860938270 
0.6428610748609435 
21.21752558975204 
-0.3047707886857916 
-0.5662715870290986 
-0.005204281524944575 
-0.7305858532206003 
-2.051778154507113 
-1.232554320750091 
-0.4825804377412356 
-1.621506062411165 
0.9614086676593260 
-0.2852899426922780 
0.6932752850254210 
2.374805397943240 
5.408326715017418 
5.008638404517188 
2.570419995130967 
-0.1308175657441041 
16.10298639104419 
0.01822755733401976 
-1.361666720445109 
2.015111212184720 
1.383643692056702 
41.52252524257933 
8.300246507665127 
-3.895052855310357 
-3.078220479319691 
-7.613069366902977 
-0.6182002821217644 
0.1786150493684834 
-2.122181218824647 
1.363146655284983 
3.438348801865832 
4.606263001360173 
3.834978795270178 
-0.1676803182353099 
0.8549075477152700 
2.166555233585364 
-1.051699143496851 
1.447429417463979 
-0.2089429023669537 
2.567362244834386 
5.771125003542036 
1.249418288418959 
-0.5424235785681546 
-4.228356875697500 
-1.740182423026864 
5.911642324457448 
-0.9496010163531622 
2.299156225639244 
3.905179757638434 
-1.775385277790323 
-1.241732786636668 
17.40043117852697 
1.710232965253259 
1.785715328451965 
9.483995902265240 
-1.611232375432820 
1.296832465311794 
-1.272590536767340 
-2.349927390516277 
-1.549903636780140 
0.7399180002897904 
-1.275046773439616 
-1.098010317331144 
7.380750766077318 
3.794452278978539 
-7.296978752679559 
-0.5095925829411432 
3.913600937830594 
1.106509368567189 
4.582259114184851 
-2.236555800158478 
3.552861824921680 
2.805345759689738 
6.935860509289418 
-1.099353103406353 
1.907177848458396 
3.930700412916849 
3.889745905554817 
0.3566386696173027 
0.1463052984120749 
0.007710892214266215 
0.7966116011143155 
-0.6137306185398836 
-0.1753888228410680 
-0.7324399842122727 
6.020002275533299 
-2.240565087920750 
-3.373383258724835 
20.42924432823950 
8.913223196336268 
3.404613653591933 
-1.985015048329815 
-2.217847997750880 
-2.026229097626289 
-0.9784559166939154 
-1.851587163376518 
-1.284050313393331 
0.009202655925202356 
-2.307690890745475 
0.3948766523318205 
-1.816081575139783 
-0.3177180909216373 
-1.333811116643793 
1.006107816089555 
13.15571034615085 
-0.9595282080348595 
-3.379689042513520 
-1.848608042069687 
-3.241462028551217 
1.182546064345758 
-3.316025687610952 
1.957634692972435 
-0.6035332935585195 
0.02427639424629247 
16.58621026502566 
-0.2418568041828253 
-0.8055007215720104 
-1.842791498288066 
-0.5848698777258825 
1.806684366891453 
-0.7299979320900312 
-0.7359837055451959 
-2.291541803669730 
2.097496814783864 
5.925761330464116 
1.369475074269348 
11.60219818438524 
-2.504116155737304 
0.3316949980841237 
8.853025920387992 
0.5310298834589974 
0.4693682704957229 
11.26513954814322 
1.953032993095849 
0.1709504930567874 
10.88467959673624 
5.346620797009194 
-1.109160776279998 
1.587035295396140 
-0.8527654698706051 
3.506113209563759 
1.313122476521577 
0.1252586839205450 
0.7399819453983719 
-1.279059788349185 
-0.6380168131077422 
-0.7454349675157231 
7.949015806622697 
-2.373403811615866 
4.508122583533410 
-2.758770560675160 
0.1697453898001853 
-0.08249055738151985 
-3.507653193305010 
0.6795833295226100 
-1.369238235962772 
8.556746976626584 
1.655057032386454 
-1.374289541449516 
-2.437792677000309 
0.7677244523837929 
-0.6887525525594845 
-0.1262426753301167 
1.238549910280900 
2.196132761243378 
-2.250979456188100 
-1.518726011147898 
2.965080568927697 
2.117934164099620 
-0.4793169085969504 
2.148440684107133 
9.855120946192761 
1.712767920838848 
3.912956626772220 
7.628472338959369 
1.724666256061374 
-3.999817668941080 
-3.135123868569658 
-2.382788627549103 
1.068242661147669 
-1.362761035543251 
-0.9537599766618872 
-0.09067110374390330 
-1.374316852048994 
3.927968785569585 
2.264277354149753 
0.1710402594238968 
-2.547174805606250 
3.341363538602550 
-0.8572684473695941 
-0.6914116380365659 
-2.477266137253417 
2.061404938988191 
-3.377868340082756 
27.36235971836489 
-0.7417765031780611 
0.8410516419828843 
3.519800038989913 
-0.8606981484704394 
-3.207721337389218 
4.275875260171009 
0.4749112712600445 
-5.094661145951195 
1.212107926509493 
2.251486192789875 
-1.854649769231059 
2.598518231751326 
6.286086107581019 
-0.3722124347833716 
-1.912923841797423 
-1.178377737175146 
-0.7938376701077049 
0.7389056955636345 
-3.685956782721804 
-1.874415213658994 
4.519823452378986 
3.321143503399262 
0.04648063474337579 
-2.238597992384908 
-1.726612919445672 
0.3802043158819313 
-1.004045601872063 
-1.769578948990921 
0.3970148483962520 
2.503337646645873 
-3.148461558107583 
0.8273996103624658 
1.558366857265554 
12.18205823884271 
0.4110688274810732 
5.008253790345607 
0.06078127350894969 
-1.423962081935872 
9.741583753315354 
1.116205899536686 
43.46442676261279 
43.37889198968992 
5.207834160908146 
-0.2133222736154193 
-2.118993019605244 
5.571751525703653 
-0.3241844093282495 
3.005263482213011 
-0.6145319444807166 
0.7053431270471564 
1.574905479228453 
-1.320375611205558 
-0.3938701455410889 
-1.534589350514103 
-0.7083086821315325 
5.414535210816426 
-1.374223072299228 
5.008093568684631 
0.1630532389288524 
1.755833022745585 
2.246157299329586 
0.1761223567769379 
21.19785694228481 
16.64179053227103 
15.64858918597992 
1.612334864320583 
-2.674183342400671 
4.156843734156943 
-0.9412870767248409 
-2.368287734281252 
0.1844304916508966 
-0.7462409557791992 
1.218549419720296 
1.715296955343121 
3.353241842807229 
2.478621089642204 
0.5725765997171650 
-3.945191501464776 
0.7747403715508390 
-2.520349684063711 
4.210026752962412 
1.792668316888707 
-0.8418280412367236 
-2.618209641193313 
2.102998377670789 
-4.124210622309418 
-2.405446265373015 
1.323746571322903 
10.05757623712238 
0.7681449432590133 
-4.013481372640953 
2.397005814123559 
0.8739744402232456 
0.5887422280905826 
-0.3105280685611455 
6.735838324259222 
-2.428478682800332 
1.570935485978995 
8.684644761180646 
-2.359914914833963 
3.394283514307301 
-0.8832616341692177 
-4.903966334111959 
3.399446957160146 
0.3582892209884130 
-0.1373458911293572 
2.306652643815006 
-1.289660540936346 
-1.896179553542350 
4.186455698120074 
0.1493963015395531 
0.5615153792382427 
-0.4250395142497881 
-3.690840279210698 
6.230455807304604 
-0.09529798630496290 
-0.2164385668233490 
30.46336976421307 
3.777993968880990 
-1.232024653529017 
0.7078837437521966 
-14.97833256807854 
-0.7458950200340961 
-20.13996592226305 
2.753256736934479 
-2.696985460228348 
0.7243579276585899 
1.778275111539141 
1.008073226671645 
6.275246757024597 
5.978793536843860 
-2.557981093001123 
15.94234099109145 
1.418852603945968 
3.804944379257298 
5.600313243315200 
10.49321449240121 
-0.4479679436392172 
47.84548593050234 
0.9194926519558134 
0.9633029465719989 
12.09510448160602 
-3.429383338203500 
1.983151940680360 
-1.424597361786099 
-0.8570345152724927 
-0.3422793310023915 
6.212275231118824 
2.287285352494558 
-1.311856102030065 
2.794899126707422 
-2.780910382216323 
4.627264378513620 
-2.091746118577680 
1.137408454567104 
3.818399554655534 
9.562234566718917 
-2.546642483336586 
9.814393825664512 
-0.5115832955407111 
3.496838013835145 
-0.6277751181138135 
36.32543846382401 
3.260565672209319 
1.605106016449433 
6.168014241221110 
-2.001798148660659 
-1.559352427562049 
-2.000824734822714 
2.699030982688292 
0.02894991842390079 
1.864110958399926 
-0.8321354037702055 
-3.506816556456564 
-4.065190281850183 
5.363398014950277 
-2.355282199616997 
1.960094027724034 
2.730388774532728 
1.616054155661473 
0.9823755934001646 
-2.140513743588864 
-1.756463539713337 
-1.991976024392037 
-1.626492434268019 
-1.399130876172365 
-2.110631208592976 
5.843569481174916 
3.143602007699620 
7.886962361468270 
-0.8785632892844476 
1.755397662370082 
-3.828058098785787 
-1.203433794648047 
0.5780854683140149 
-0.8001364019188927 
2.525042443022376 
2.072735574209373 
-0.04173261228098129 
2.609339816327663 
-0.09600756151372533 
-0.7233934221271806 
14.24284801472319 
0.1478481488959045 
1.929162296803120 
-0.6575852829085168 
-0.1668651426849464 
0.5844868496459475 
-0.2910979552531622 
2.872310537806667 
21.48577939986531 
-4.676187820794769 
2.084405839194885 
-4.049925873594986 
18.23970879361520 
11.95750402911390 
-0.7062536734781200 
-0.7423631903713371 
5.237020335527597 
-2.218766969957400 
-0.2576199584104429 
0.7070063703298359 
0.9660983082344868 
9.393170652679254 
-0.02562799497298908 
4.905530952651981 
0.7865674040810233 
1.510614198878207 
2.119184078619339 
1.144254762031238 
11.02809237746490 
-3.223132755950317 
46.68442208622076 
-3.070391033375543 
4.196293773173187 
-0.3091327406210584 
11.00416475990025 
0.5637174563392711 
6.773255412513122 
-1.715402810160871 
0.1104495042843008 
-0.3345603651062959 
4.205978685383482 
-1.674845519377131 
0.07604765197079734 
-3.987977268317752 
0.8451552782248095 
0.4187429361770906 
3.654649708972791 
-0.8329229627016861 
-1.083523733343019 
6.299369886950819 
3.235914197297071 
6.208464494424727 
16.13045668633598 
-0.4286969089279940 
5.430726160423122 
-0.3952526629173669 
-0.6368501530589638 
1.092025508500915 
14.15589998753744 
-0.2968526787236632 
1.149933428266629 
8.375997350626120 
-2.957562563955972 
-1.066534188749712 
-1.455096124802760 
-5.079921859894767 
-0.8763762698326689 
3.439403479128448 
9.319094794933955 
-8.230676872696952 
-1.000416433264293 
0.8007385719107609 
2.896962183228391 
-0.9138928602552688 
0.4853998609724984 
8.571202807813593 
3.759132019180917 
4.625378342019114 
-3.030006542102665 
0.4335278667219200 
0.3375371258711889 
9.739235571266978 
-5.454416515976182 
8.569569458067182 
2.260480239124153 
0.4806189136008016 
2.259128078045503 
4.062871017193061 
3.165062876198028 
-0.08888486802105050 
-3.731381242324868 
9.625972727101574 
8.684610863379683 
4.845561482108265 
0.9135670972409472 
-2.020263708071069 
12.01391193468097 
-2.707578657076316 
-1.447778194348239 
-2.487279198260644 
-2.775793196660774 
-1.213774890502754 
5.016246965620659 
4.205511179349928 
8.997050425240833 
4.188854608338407 
1.784047283641680 
1.856513548147709 
2.335869013615199 
-1.183454191142915 
2.522032518957342 
1.425362488399232 
3.686864221737356 
1.278893208077094 
3.058402524191686 
3.891888337783677 
1.419777427408490 
-1.165556100678912 
6.627888934016823 
-1.465153060517677 
0.4187272715697229 
2.585079054741883 
1.651822831568760 
2.688639905767441 
2.057118309851322 
-1.391454802239201 
-0.2207063924546227 
-3.805856719028677 
-2.502657634264163 
0.08093051953659083 
-0.9794443201390143 
-2.020326832189071 
4.988414029762916 
7.136482179863644 
-1.570984373331290 
-3.800759883504041 
11.31151414844124 
-0.5970774869821556 
2.850427038022760 
8.014620508897336 
-0.8955822872563091 
2.681290667171187 
-2.170263274389014 
5.855590947783355 
-1.323422340466409 
7.279979859306301 
1.690147108439433 
-1.094393928665245 
4.908314025028562 
2.981619536300065 
3.853595784899004 
-5.072269712548720 
-1.295684359727765 
-1.831061302249986 
5.759430752713461 
1.148939974222597 
-3.088345649080255 
3.082559956452652 
7.239158129556214 
1.356305076134935 
-0.2876781418528545 
0.5207036847663766 
0.05235841804823237 
-0.9770020546056799 
1.837336146369778 
-1.398632359244279 
-0.8120909671829857 
-0.1437549073633341 
-3.304455510197679 
-5.896538382742765 
-0.7383418826681174 
-0.09277730795783373 
7.588448947994134 
-1.927413988194019 
-0.3896081067866092 
-0.5648228450852489 
0.8632327923235878 
8.559295856632431 
0.6755817728325061 
-2.124194386203630 
-1.197051200700135 
-1.339355999414403 
12.45675779054743 
5.207745849161557 
1.424015367788117 
-1.165743756044888 
3.472971848584188 
-4.595543775611483 
2.470545744002807 
-2.020245483609712 
-1.443266311616084 
3.212465045883567 
-0.9657834900680564 
-2.904558034283264 
3.362222016646053 
7.628065025488958 
2.714835704662532 
-1.247111815860452 
0.8523005823953812 
0.5269200734859709 
8.351804441126152 
0.4396637432696013 
0.6051394578396436 
4.108374744989749 
-1.909799217420784 
0.007879631194255585 
1.744519173162612 
-0.2200388029849635 
5.721966179217138 
0.9006489355815158 
2.437615141239148 
3.217983710036467 
-1.999302553531965 
-1.136659133076982 
-1.821783904993402 
-0.5088245368999854 
-0.3663196386424991 
4.236332819250581 
-0.2401427285220336 
3.145403190604286 
-0.09972112172683180 
7.901832638486080 
0.5046378929745199 
6.358109049983029 
1.497109493140149 
0.8574029776959121 
5.844193640634545 
5.887992329002628 
5.128803884577781 
-1.381614374333808 
1.083723858715857 
-3.731534864791883 
-1.264359066973468 
-2.446187387197221 
-2.738303796520847 
-1.184825853284810 
-1.989699957022646 
0.7435863909897603 
4.738624006628325 
6.008283486281068 
9.130571644233218 
0.6877807087419645 
-0.03806361515507826 
-0.5384847972431185 
-2.180951283920470 
1.678733935569992 
-2.068118313160439 
-2.136526745911724 
-1.651912625547583 
5.995682002031840 
0.8097897407523913 
2.994107322055093 
39.94865636761139 
21.61931220366971 
8.361871367779662 
-4.021433770042145 
0.5820684080833857 
3.293214079801367 
37.01135874528409 
-0.3281426408375215 
-0.8699475298306314 
-0.6556096397302442 
3.827026440489354 
6.496544315169813 
-0.6214859351763952 
6.415301885560713 
1.432608454773768 
4.921594920924754 
3.024628598797658 
12.04105276744487 
-3.814920571799283 
0.4346007002296614 
-0.3548779909171640 
-0.8602986367411048 
4.997784376516970 
0.9401465832915100 
-0.4904605659663044 
-2.474745932995279 
5.145635873001892 
2.687356933163935 
-1.251916477743493 
-0.8875712658960041 
-0.6334202400672354 
2.958563401221215 
2.680534660394852 
3.989255618523418 
6.334442760804699 
3.638691883602000 
-1.814211771063740 
0.6981883687237853 
-2.038480822893734 
-0.07553557168953548 
10.59124208338493 
2.074109790752390 
0.8074559529492203 
-6.626714482236195 
-0.4987516376442649 
2.126654338932069 
-2.006251009054257 
1.971438602350750 
-0.5582048982284114 
0.7227615752973013 
-1.329900293792552 
-0.9606533305773846 
0.5206900059622757 
17.87937217474510 
0.03888514626421927 
8.786658717142457 
-0.8992108953752463 
12.35411835358418 
-2.355161716986881 
-0.01978222631247083 
-1.772150745793055 
-0.7278405316468433 
3.486209380115706 
0.2527373593702129 
11.60611119535225 
1.130347901473235 
6.298486835817021 
18.03002764924890 
-2.540863135757660 
5.137772251878015 
-0.8392215983340768 
48.00449151279297 
-0.01925778221738763 
3.147245490446698 
2.960958308813627 
1.134173993973495 
1.428417966497501 
-2.145030021143709 
4.557239316189016 
4.603868987442325 
5.098607952640800 
3.789420298455276 
-0.9893489958906972 
12.69003582842913 
-1.488069524769043 
-2.487630440108767 
-0.8658170225099573 
4.291588144553985 
-0.7038438313147383 
12.62741399586035 
9.549863338586944 
-1.733261785078522 
0.6641767708752132 
-0.5793734817348714 
-1.370282850140816 
1.626724020395682 
6.719507227615065 
-0.4904189546382343 
-0.3511995929819207 
0.9375717251462266 
0.01053297755415324 
5.784479571892781 
0.7748354613850852 
-0.3880152802035985 
0.5092345949587398 
0.1068433398080659 
-1.074143677239761 
4.229736016047013 
-1.378826443417931 
-1.389210003133409 
5.486741514106099 
0.1951941881517426 
-0.2437412016569633 
9.449820101830658 
-0.7420510298973643 
1.704355644930511 
0.5591044118308750 
2.096796911265840 
-2.246732736394960 
-0.4298089807111383 
1.986030094409965 
1.356870190828834 
-2.262363581564678 
-0.6527620523467524 
0.5095178209194497 
-1.262644237380267 
-5.282701679820074 
2.669479997436504 
0.05128799260088328 
-2.691424677587886 
-2.090964458467806 
-0.8967585533333814 
-2.360274244000742 
6.928422090082187 
-2.049507027050160 
8.111907795760096 
-0.1511225480091820 
-1.191955202319898 
8.515962943354028 
-0.9196277863435249 
0.06093014435131514 
2.299635217521799 
1.023262863399678 
-1.059948086604204 
-0.7306231688234529 
5.838186843004731 
-2.117779733588438 
-1.520135587856826 
0.2413538685480416 
2.504205223995812 
5.075742592272697 
25.36545978491688 
5.833784653171051 
-0.05986067921354524 
2.632848937608217 
-2.549623598517068 
-5.147703881593846 
-0.7774895057877106 
4.575220115109414 
0.7281590206544184 
25.58089230694426 
25.86795929063992 
2.545953616276907 
5.434628250442048 
-3.253690168728299 
7.235036718933498 
-2.307669655424994 
0.1312899693205478 
2.068844280361797 
-2.283437805057380 
1.625734243333508 
-1.352776808667881 
13.27624773587780 
2.613435099181267 
-1.304782205856930 
-1.590049785819932 
27.79064673405804 
-0.8998543707368009 
8.279224377516323 
0.08856938020561622 
14.56795928711880 
-1.254682914847940 
1.943878591654347 
3.761583482418720 
0.9585941936726142 
-1.975381783132449 
0.7075345289884418 
-0.9381433509525001 
-2.647513197946682 
0.03176793301230585 
1.032642414220002 
-0.1436030131543561 
-1.015234532119395 
3.126253783543030 
-1.504879783228706 
-1.455829349367795 
-0.5261162133396728 
-4.624367400267708 
1.007876772998330 
8.114240284791585 
-1.441901324041018 
0.5915453881746197 
-0.6759012489076968 
3.579533116611754 
-3.507819277669424 
6.999247788768969 
2.201326750835965 
-1.575135791372709 
-2.655140599532639 
-1.586080820588951 
-0.6753386331149093 
0.4161480988998010 
-1.362022853753665 
1.447349605995726 
1.678078486018633 
2.602024930277865 
0.02887116405778778 
-2.996510460316566 
-0.9276993755203657 
0.002930956778543329 
0.7247375362807789 
4.220597764453361 
-1.287656079246295 
18.54299027396717 
-2.759535253333524 
-1.146584106546805 
-1.302722144780532 
1.287642073360900 
1.816469968227828 
0.3162505267223046 
0.6641599996531047 
-0.7749392828593129 
-1.400720360855896 
2.798753634530008 
1.260734230135127 
2.506076644196039 
-0.02623534054124582 
-1.153477797178552 
0.9515927132068116 
0.8689063537733485 
3.201008873159818 
-1.457613749690653 
-2.226246091292653 
0.1107307249631656 
5.510323094964416 
48.58785328958464 
1.624245713678467 
6.990940735451213 
1.881562109178582 
0.04325606301905315 
1.137050627884306 
1.760068888319792 
2.371810048431430 
-2.570330067898404 
2.351915077897924 
-1.681902396527834 
3.235225485914886 
-0.2637333591143490 
-3.930382519692441 
0.2190530620740059 
41.06111509801019 
1.817483207299248 
-1.561094626517822 
-0.9737136947669840 
-1.452759877995423 
0.04485028857411391 
1.858962295107509 
-0.1736984123859745 
-1.193849246689205 
-9.080623726212057 
3.838479971045184 
1.113824544276115 
-1.152820584485102 
28.05002394408278 
4.311898830474371 
5.314715568992916 
23.12108774104934 
2.412411653920112 
12.55587065017565 
-2.193308667825880 
3.719557883588108 
-2.170711364437769 
0.3855973333308292 
-0.2826323963903510 
1.669506850849347 
-1.558727835511354 
6.017075491833089 
6.280235857357194 
-2.346661991254199 
-1.834290417042882 
-1.300999690111318 
4.058736259297392 
1.340572094709413 
2.759342904221604 
1.059207566959350 
1.899640495966360 
4.914817493477160 
-0.4436247373757185 
1.771806255465872 
1.651285142661315 
1.040587036646655 
0.05166248472639266 
-0.1669569640926234 
-1.424737425927060 
44.30986929926958 
-1.012940290148615 
4.755729132167479 
3.136431662189737 
24.70906544438234 
4.014146003857015 
3.102379747421753 
34.42551740683776 
-1.182421793037547 
6.883858710905646 
-1.514381253619079 
-0.3869244336786883 
-2.023395025246618 
1.049212685246292 
4.832440260781533 
8.477321487845304 
12.96498753819332 
0.03097876396317537 
-0.3959496663089007 
0.7523553910945757 
4.385630759894054 
7.283912517856878 
1.529031747509936 
-0.3227214117219074 
0.3357041828427455 
5.122695998138047 
0.6338603224098309 
4.390588488213833 
-0.5725262237879531 
3.300500118531195 
7.270472116795306 
10.32465244151526 
0.03957532586044719 
-1.084564355440179 
0.03167517296902581 
0.2600109669822653 
-1.019637413114086 
-1.099857510888240 
0.07705567979803832 
-1.150541281758816 
-0.9585837601871996 
1.339789770835909 
-0.6895619100557759 
-0.4467799849626972 
-0.7923715782836516 
-0.2602140867909662 
-2.896699497853919 
-2.462503332776968 
10.61786962132227 
-0.7542571295702806 
-2.377258718177058 
1.429962861366538 
32.66930310839904 
-1.267419093496390 
-0.9709356650209790 
6.044414174217311 
39.08902102685044 
-0.6639635331651434 
5.469385191827162 
-0.2244372716167268 
-0.6216270520386865 
0.2047777245110578 
-1.089497980239832 
-1.682462518343450 
-1.569546710706961 
-2.360330691060122 
1.478643425687874 
1.500464117922322 
-0.7267375150884445 
3.174782422690980 
2.998268150245411 
-1.321487172067284 
-0.8890264251216067 
0.6455923203454856 
-2.565279810305832 
0.4619265159056493 
-1.888860883438098 
0.3813534217108816 
7.301955552350488 
-0.9017544493509524 
1.702426968575384 
5.296895508676298 
5.838905644992446 
3.202866489568576 
-0.3442221519765085 
-0.6615566181483987 
-0.9880252840270594 
4.234981038827423 
-4.738039391502149 
0.5357117443193509 
-0.6326750625837012 
-0.8446132507210233 
-0.3282896023614471 
0.4882951885673700 
-0.3770920380046685 
3.788700663550278 
0.4523608104023136 
0.1529737079177315 
0.6168824271440659 
-0.5205229287974258 
12.30844495005779 
0.3783276494636260 
-0.03419343588302707 
-2.415234098023151 
8.520863842499924 
-0.7597735533866918 
-1.642339890153369 
1.244884978478970 
2.303275658713223 
1.766071204886559 
-0.6746701748805781 
2.345083814819390 
22.06688768966642 
4.281988005016807 
23.77343908476594 
4.527653331768910 
-1.994544313014222 
7.297554168205523 
1.780844765284747 
2.379380737851713 
-0.1625938930279880 
44.37141730445234 
44.43381150305063 
-1.484406385377094 
0.3951698489009112 
3.426976932822614 
3.593710932175818 
-3.173496821904771 
1.239058356414354 
-0.5504057050739967 
0.2730239193861216 
6.169348748016960 
-0.01333990393145006 
1.681584425958451 
-1.138755916272676 
-1.977981889095317 
9.394501143512683 
-0.5705121347391802 
11.02066360957307 
0.2844549554494875 
0.3677107678410626 
-0.9340160479575177 
0.1990113950712490 
5.977847413111479 
1.825041808249595 
4.642399755308965 
-0.06927674718040076 
-0.06919519618261122 
2.232947219895578 
-0.6771514157885483 
-4.850840214593796 
1.397179600552059 
12.14462915946838 
15.34678341977672 
10.82091087795819 
-0.2375124530082879 
15.73685392328872 
-0.7312001716187677 
-0.2448109778384850 
-1.096108946670362 
16.35172836345048 
-1.166315440601285 
-1.721953124180795 
-1.697297255691014 
0.3710361936978754 
0.7113066288296834 
10.14411638476365 
0.1302104482660080 
-0.3699128280601992 
13.33495193329734 
2.073416813606640 
3.699455990383175 
29.09362809829631 
0.3311521843190911 
-0.6440125267779768 
6.689907319486277 
0.6328336426238212 
-6.149016044647494 
7.525069759003126 
-1.235311441635844 
-1.197388697395236 
-0.2260012733101054 
-1.532707921817531 
0.7042021902630405 
-1.194323253005979 
1.994485791933575 
-3.302052983522947 
-0.8758630025162133 
4.889269868645255 
7.473729344530067 
-2.943895963542193 
-0.1468003111145320 
5.892081798994975 
-3.038206653157810 
7.325502047149125 
-3.305479149139790 
-1.592871206648647 
-2.228691882543560 
3.137216125708436 
-3.443530399754244 
8.488059603939343 
0.09851518740343138 
8.779006488006445 
3.715846108270494 
-1.018931595813401 
-3.395719122990287 
14.58105330861606 
0.2353469364400293 
5.305991822503977 
8.597196278291060 
-2.039160209938684 
0.3515793931083809 
-1.671320861242680 
0.4282784074277022 
7.683793657369919 
6.061989794826209 
14.23116819667364 
1.171396113686011 
3.663705383812657 
0.5534703718468386 
1.663073570702344 
0.4085607160129720 
14.81465788445775 
4.650885956565155 
4.397999289240312 
1.218666193581403 
0.7508417577474992 
0.2328134843993362 
0.1871103427519581 
0.1263521164060328 
0.009813751763140425 
2.079114599720245 
2.028952504297677 
-1.126988664749985 
-0.3247950656915320 
2.578627685260803 
-0.1787086938451473 
8.711112347949326 
14.30647955933347 
2.474755624237443 
2.770875819335030 
18.98309248295053 
0.9083261321131530 
1.132443547788166 
0.4883213636648668 
4.112714474777264 
18.08681931206407 
8.869492436657646 
-1.503510340742706 
2.876319956489727 
11.31177944112700 
-0.5966795548799066 
1.874420780675298 
0.8240711195897200 
6.696532350990171 
-1.220270062742405 
-0.3132023552999178 
2.139936104701186 
4.687135002897946 
-2.075838287412683 
-1.241694632916941 
-0.4706428356186440 
-0.03052918626678947 
-0.7991889471023033 
-4.587912570762180 
5.043409210606358 
13.28437307331146 
11.19926090015637 
-1.929847095930708 
15.47370806653638 
-1.296644180412948 
9.886397282263761 
8.177981589498582 
-1.358010557758975 
-2.739862506036502 
2.226159550094032 
-0.7298204391260787 
4.914656987970229 
-0.8152421561758876 
-2.173299943128285 
4.139613721528805 
-0.4890618143557431 
12.77518811306623 
-0.4687817836803818 
1.559956337791614 
0.5078368581907258 
-0.1848364061863138 
-2.004384799752029 
1.873135546042343 
-0.9311157445068600 
2.195409158026278 
26.72758999544777 
1.431179437919362 
-1.496747917535575 
2.912734591369262 
-0.7883315135565709 
26.12468202019336 
29.13698822734726 
1.422495381063526 
-0.8476900608719334 
-2.279025859678477 
-1.625194590683689 
2.284409606977819 
1.759332723478054 
0.6467655010946247 
-1.260099792082538 
1.757413810872402 
1.050543035947843 
0.2585677445536490 
4.468157345376185 
-0.6870397934700223 
2.251030646283244 
-23.67165052028059 
-9.353544695649923 
1.544443222561466 
0.6145067093337032 
-2.573498137799512 
32.17111907749923 
-2.378317877583100 
5.564739557580516 
12.74945306587465 
-3.289290115560716 
-0.06109114509748850 
16.01814622876485 
39.48287358449327 
-5.788667134247982 
2.124816501263799 
0.1512047925511515 
2.868428581352623 
-0.6383307209342687 
2.094767693988040 
-0.5244599527695544 
0.7825117208495418 
0.3713043717410678 
0.9427492973140422 
-1.713010004453693 
-0.6501097659891932 
2.121239495389913 
-2.803461073226240 
4.562202840615027 
3.010434458142920 
1.843162967524628 
0.1965662335443746 
1.193788745698101 
5.138248272286913 
1.904343219953149 
1.189287955645669 
6.976188780035298 
-0.5624356428681670 
-1.684620779714446 
8.042906456212604 
2.239850541817499 
2.000972928172986 
-0.7033073269633519 
11.20084855788755 
28.20490141465580 
0.8870183568321782 
0.4059379982631239 
2.090222273371666 
0.6250456182997333 
0.04698698837603269 
2.573092182107824 
3.800690176060364 
14.68639921156086 
-1.429502002766180 
-0.1230421047504027 
23.38547377442809 
-1.344962431908189 
-1.200201439986219 
-1.978979081012801 
7.491315835177113 
6.844635375693688 
15.85386361905913 
9.634604359311874 
10.39926877539697 
2.366253181676379 
-2.700854931438300 
-1.839116585548408 
1.934668974312343 
-1.574960979135240 
9.277891820785385 
3.532268664701078 
-1.687919432830022 
1.164887219714025 
1.335309652871435 
3.872414013219919 
-1.249158869470609 
-1.375697054524572 
1.812894965282586 
-0.9574058579694648 
-0.08150747967401487 
0.1497338602000448 
-0.1641564486003616 
4.060032395204743 
1.008322698026409 
2.480003837086307 
2.374525584032619 
-0.7480217930004148 
-1.199139821527557 
6.029014183969011 
3.490533294840641 
-0.2800377121820776 
1.713829168348113 
-1.853204116769192 
2.469765696236066 
4.367788822783847 
10.65680654929975 
1.640868533193421 
-1.963307922107782 
-2.134258825266787 
5.729500128824600 
-2.070314961254056 
20.75807321676837 
-3.167102052719917 
-0.5712235404021822 
2.736672386003616 
0.2257917748305325 
0.05565789749352586 
-1.887348171927649 
1.776872975540913 
-2.387291045073392 
2.199989633092077 
-5.376776926897620 
-0.9911717615276741 
2.534184243579777 
-4.596610338696340 
0.9828045092962163 
-1.180890560455069 
-1.255499033726533 
0.8586562660997635 
1.070352389470185 
-1.469440926016751 
0.3302246368133824 
4.128077751273029 
-1.131985972546976 
1.567106224824513 
-3.665927080125403 
2.350090367920851 
8.860491487255480 
4.172971906785049 
2.386552509665496 
-0.8766785491814587 
0.001992219575997906 
5.016958015331557 
-1.485885527083536 
-2.388078854858285 
1.562234974752835 
-0.9847533320388787 
-2.285279094056010 
-0.1405164036467110 
-1.372936015607823 
-1.936332624686553 
-0.1741777869845345 
-1.072976363678354 
0.7079084182726891 
-1.466006644041008 
0.1640564713409562 
0.1618240288990693 
22.18324507858582 
1.135781595237349 
2.147392647450556 
1.395729263752319 
-0.1762422745030434 
3.911341691117294 
5.255636543731960 
-1.709253983476790 
8.745557847934045 
0.2466067459630029 
-1.228212906074178 
-2.024702525369114 
2.502136833711960 
2.326613064586506 
1.030070408557997 
13.40307711913747 
10.51365830259758 
2.858596540796920 
-3.080302209398142 
-0.5806484184907726 
3.629904258281663 
-2.499318014189390 
3.641964446569272 
-1.190579027077498 
-5.723121798438402 
-1.683385164347285 
19.51110492950640 
1.296121975486448 
0.1223042344069813 
1.075133614080746 
-0.4388809056824828 
0.3815310990319298 
-2.605444800383726 
0.1891771718102783 
12.84448024529142 
-1.937366735293663 
-4.270257848841424 
0.2499347022322757 
4.431461826001847 
0.9922576759515785 
-0.5210832882628043 
6.213276382041583 
1.168146784144518 
-0.3547537932672331 
-0.6330571235538404 
-1.096994237192021 
1.053216135998493 
0.5037276870073083 
21.19532563722366 
-0.4944685132674178 
12.67361215708080 
2.382483812919944 
1.767949670897079 
5.116804235879954 
-1.492262101290129 
-0.8083249835657068 
-1.842784555050029 
5.103102424975677 
7.395765823993728 
-1.039785716353159 
7.599708545533482 
-0.1190547851390813 
-2.264265612728723 
0.3813770895616566 
2.834618192444835 
4.352477505464869 
-0.8041469022706231 
0.8958434693375134 
7.313803499504261 
4.860130268634284 
1.081841496167133 
45.31783062677039 
0.06575819517364445 
-0.2685693779316809 
2.758759699891764 
2.875697883330239 
6.456359636114050 
-1.033779778552096 
5.420962706404482 
-0.9323866569299694 
-1.705211283755063 
0.3888016848001136 
0.1459159439928849 
-0.9221922808884658 
21.36788295744462 
-1.257247718966752 
-0.8005277266335962 
-1.496337377521683 
17.92814459519384 
-2.267512947019087 
1.072271016059259 
39.56631255762316 
0.2639498104107212 
-0.7953450276339021 
-1.602137092578892 
1.296627936749592 
6.721964165994226 
0.5908943107623537 
-1.112310534471478 
4.236325958974253 
-0.9286070725302751 
2.776008674118442 
2.941232246388463 
2.829925499424201 
34.66954328691009 
14.12695659433970 
-0.6046598574277299 
1.309654358758809 
-0.2750376782436845 
-0.4737523392815527 
-2.309940158181675 
3.565481180621437 
2.285259943856005 
6.621216703966010 
-2.045634926610456 
-0.9682905189288815 
3.522271420221991 
-0.8457841980468657 
3.251523001579168 
2.574519652841756 
4.202711948000020 
0.4407847552650495 
-1.426358587421029 
-0.2037340360374328 
5.123004534750186 
0.6784211154720076 
-1.561512221266006 
1.412657750422516 
12.49916318498721 
-2.497837163765118 
38.10259056318823 
-1.421493947094765 
3.216859739181934 
-0.3927690473523074 
2.323958627340547 
5.574386552861713 
-0.9797483272374444 
26.95631256203420 
3.276021134586052 
16.76998683294499 
-0.1486707964183896 
-0.3062767233167686 
8.842318010923588 
2.620307654665051 
0.02642425696672538 
8.034920749750680 
2.658894038994872 
-0.4947142007883851 
5.681304739735935 
-1.297452191578356 
5.233114792133986 
0.6630063840957275 
2.427464685877008 
11.84407017747735 
11.80150036179298 
35.87472931039464 
-1.157453335032552 
0.6976343024787804 
-0.8731266224520439 
1.627861390392930 
4.430553939594438 
5.861682079581037 
-1.709831293316120 
2.853466074873369 
6.526307041316044 
7.927262498456158 
-1.295747580810861 
-0.7565023330682497 
0.7697572885563798 
4.192976533260207 
4.150279943708592 
-1.450574495145367 
11.73456358897565 
21.45481861726985 
3.782230158968343 
0.6312732887736810 
-0.1492598534210143 
9.030014936942822 
-5.027150691186690 
19.69468497410565 
-1.514952795589717 
-0.7519559353407413 
-2.660904829334586 
4.259475183146352 
29.63785772064269 
2.005548696100093 
10.58768161220677 
2.131515462265785 
1.085016458189212 
0.4213363987394602 
-0.8356380593035758 
6.171699657619858 
1.811501298588835 
2.017105388606979 
-3.051950017608121 
-1.376901573586417 
-7.945341710409229 
0.4372887761580186 
4.218184799469981 
-1.593431368675974 
-0.9709898468784041 
42.51201444604179 
-2.092315103565280 
2.864140690992603 
3.496779237942453 
-1.146828247172943 
2.353814317867941 
-1.727956452685141 
0.06728569064996229 
-1.878265735339707 
-1.370171830827001 
-7.388940598853097 
1.174403315070390 
1.353824412243039 
6.983091473676967 
0.5222874472004435 
-1.220475287707274 
0.5141953701700529 
2.488507326716380 
-0.5114710814510449 
3.182519214040152 
-0.9779124157922956 
-1.648148304320790 
1.727707397952636 
5.932233214704298 
2.009862539724956 
6.485340719778915 
0.1199339485247016 
4.075649741013340 
-0.3218513924444946 
-0.6877237845494506 
2.186245223961182 
5.180578067840058 
4.587759515022997 
9.459092363141039 
-2.439426358360919 
-0.1530445300977731 
2.808841712246621 
-0.7879047167772020 
9.371529959723368 
13.79471962193937 
3.754869133826269 
-0.5209667923621325 
9.581342390954715 
7.461360597326602 
-1.602337139306733 
-0.3506078851366128 
5.108568042987873 
-2.341750399109199 
3.055108227627486 
2.165660694378419 
-1.127359517975658 
9.547822956645010 
2.678365462633142 
-0.1720362424167289 
4.027361218517498 
-1.088323410775099 
-0.9561116875877891 
0.2017844685816427 
9.538899621401503 
-3.751251221586165 
-5.592263551268668 
1.044028438532747 
-0.7232442528806946 
0.1331098899156953 
-2.263271583494790 
-1.950625271649197 
1.333193329660696 
-5.435818055214760 
-1.876145819637346 
-0.9207636041518751 
6.130240674513614 
-0.9250481683821902 
-3.709432729739787 
-1.679327382452947 
0.2241087031082530 
1.021318617678714 
0.1095546339313903 
8.958551046055124 
0.01286782681080104 
-0.05918666397867629 
3.379609925652257 
-4.904456595402587 
1.283049734490119 
1.278534437439719 
1.459491609573160 
7.620338406052871 
-3.042842015976709 
-1.952367918355105 
1.529002063440459 
-0.04935651955253144 
-0.06299925984303728 
-1.951524821478587 
0.4899271555692480 
-1.930049555687363 
9.838387730685213 
-0.8326929025798682 
1.150338340683683 
5.323776865190443 
1.597521768427627 
-0.2559979629587120 
-0.2192494252271591 
-5.213383203643641 
4.023067013918459 
0.1732820150186266 
0.8983160446147996 
-1.729314522975283 
1.702829159693222 
1.610312430703800 
1.524954647940423 
0.2997219962019806 
-1.750530752217028 
0.2067522570302525 
-0.6836424749292251 
3.748644237977739 
1.097636274591827 
-1.553976782592191 
15.58164442853116 
3.220019422478242 
2.512197514603900 
-1.174702997955149 
2.856552920657257 
34.02624728736220 
1.410952258996952 
-3.348667512159733 
-1.187324616098995 
-2.457605832406328 
-0.9665984183466952 
8.152162473331114 
-1.080744902669865 
0.3384407896335353 
5.328644087549304 
-2.126230815864664 
0.4033667153264975 
19.78506220126257 
-0.0007248387734752337 
29.47415593302300 
0.7045862439027324 
0.4578120277351468 
-2.229163829014158 
-1.722447057831420 
-0.02248562946054196 
2.649717162190687 
-0.7941577172916906 
0.5956526732387813 
11.11794749517034 
2.769721120471252 
4.396502351078286 
-8.838305042818950 
4.570665922475066 
4.021446382097529 
7.582933714619140 
4.898167685119193 
0.7747847144887936 
4.241872797691638 
1.531242820843405 
-0.8632687142926101 
47.61684917813687 
1.127501852441394 
-0.1760422081690857 
1.293815706378155 
1.033299088139467 
-0.02969924187831082 
2.324804400449944 
12.89864443671173 
-0.2782357073594819 
4.558516890271149 
-3.520266325372042 
6.611571926542591 
3.239819171898901 
3.976376796218310 
5.726811564305248 
0.3356224679875051 
4.283353399295721 
-2.015856958076961 
0.7034907493085854 
4.426525523261705 
-2.030962136254998 
-0.5057424414235404 
1.163145443337679 
3.296509820892169 
-4.777696290151162 
-1.063605176364726 
0.9529102139907840 
0.8529118893956081 
0.02970912356202440 
-0.1978843885890754 
1.266908069273063 
1.341383256430485 
0.007190934893750146 
-1.260480664652492 
0.8985513989424508 
3.351840646632238 
0.8072400749429524 
17.05822759566824 
-0.09178416445428222 
-1.198171041340101 
-1.297836634064630 
16.39441796620967 
-1.610489947209778 
0.2925980505051334 
0.7210897722586282 
-0.009631066517673833 
5.142827111131195 
-1.730052909541952 
-4.967882033306279 
-5.202354238108992 
-2.685114342525817 
22.12945665597905 
2.100030216020627 
0 
6.214237675799565 
40.36661648458922 
-21.66953858363098 
0 
3.544582995211800 
2.241469100563603 
0.4426983635966004 
-2.016351530903295 
0.8714519166929697 
-1.152344963991896 
-2.785691381573972 
-1.033090369548441 
4.430991095056893 
-1.984980591895825 
0.1044803325751044 
2.297568863600477 
-0.07555647756258105 
3.908602455390692 
-0.6180097006463593 
0.05119494465951296 
1.465895190392990 
-1.049382566908417 
0.06351503462203571 
1.371436763369393 
0.5218868263260326 
4.696278943288941 
-0.9884148152015095 
-2.648943911301145 
0.4429476609637391 
-0.2585909070141015 
-1.287236303859950 
-3.224779634419810 
17.55552256563603 
2.029815284563648 
-1.349465313772746 
-3.113791231632929 
-0.2632821113745480 
-0.6350255491582233 
0.2161648728157758 
43.88522614203006 
8.942188651134100 
2.203266390518444 
5.425976666774171 
1.666367642166507 
-3.267312588232969 
25.84876275982824 
-5.302291475719748 
14.12210097253060 
0.5676593542536326 
2.275007971095433 
0.02051100934047150 
1.014379028401828 
-0.9752354295632691 
6.502991050387757 
1.102857856901180 
2.399757747212314 
1.414635330155548 
-0.3618195778248306 
2.415150371168809 
-0.4236892992573871 
-1.670673987443379 
16.53224300493783 
11.17191208024175 
0.1577284324257450 
0.6825007534243057 
-0.4022897233472172 
0.03061440657406279 
-0.2745642653462483 
3.760530094934849 
6.738463770332138 
10.80880040530535 
0.1710434334907106 
-3.402390361379332 
13.77298211849547 
0.5302605648810662 
1.468136501583090 
-1.566900066319633 
-0.3622884962676711 
-1.257734982603180 
-0.2421880967285393 
-0.1970616182975835 
2.683587997718246 
-0.5303509188709599 
1.751021823678529 
15.67159142555288 
2.183040747404518 
10.13599296236132 
-2.371595035099458 
1.459231670934641 
-1.135029738656440 
-2.179006631276883 
0.4378676945806357 
7.877442998993270 
8.002767795823225 
-1.125888601631507 
6.029358677454418 
-1.005155878795717 
5.011207295901460 
-1.899579526019260 
-4.795922929920660 
7.584901116247507 
-0.5656010397199168 
3.859418792199608 
2.957199652491782 
4.232399616803598 
-1.271521715489228 
2.279056283833952 
7.019123303743230 
0.2002460727866647 
7.093060999587346 
0.2651653603325615 
0.01561561361632413 
2.147934758980318 
2.239765040895299 
-1.993231725595628 
-1.485351730786326 
1.435753174917571 
-2.091182481833136 
-0.2953284375533931 
-0.3908020161749070 
2.652079314612285 
0.1341755655480481 
4.790095844792529 
-0.2422267198327758 
8.393076464300073 
-1.229214646994859 
1.704735914068168 
-2.145963580587595 
1.668169485998479 
-2.203832612787394 
0.5383288874715197 
1.104745811371990 
-0.9801649090768914 
1.404940855348966 
-0.4866685610403894 
-0.3124514510887293 
-0.5832554562479751 
17.86308042137561 
1.524107384693921 
3.177100149925560 
-2.688322740109765 
0.08444444328088999 
15.90695000726665 
19.39190739973464 
47.89373483010935 
-1.709367562927649 
3.736789340857802 
-0.9007491833247558 
59.79987078815771 
0.5389617332742537 
4.115390744020096 
0.4530092636703882 
-2.771931969663483 
29.27260792056545 
31.03923760645996 
7.220977493909886 
-1.362664035071781 
10.29479652285367 
1.350777079621837 
4.591498314752914 
1.688287437671624 
0.02481658421469976 
-1.505382794043263 
8.247490147545824 
-1.219745806629929 
3.197928289844070 
4.692278188089662 
0.8446797660722426 
1.673071041054635 
1.965239780581388 
0.9206244426032040 
-0.9205339944675230 
-0.8411576636710892 
1.914890328783341 
-1.556287447674470 
1.971520907934972 
0.07660592716455086 
3.032930724976060 
-0.6577268699194005 
1.152551991342961 
1.470331787784477 
3.713745040570903 
-0.06429218453125972 
1.830162960775251 
4.157550529242608 
2.730349021904478 
1.124204005444148 
-2.094416931308823 
1.556076042493972 
-1.307111821531417 
1.924189635410151 
7.932749396433759 
1.190737348603919 
-1.706118534024118 
0.2456000353990432 
0.3490655204783828 
-1.464525852397352 
-2.657275818113399 
7.519253190773120 
-3.316120081723780 
13.11511687114175 
-0.7647282697333684 
3.888047099248440 
3.037662721441827 
-2.335418458322277 
9.986403962330636 
-0.7288184865749778 
-0.1592361560810851 
-0.1632246621524924 
1.518607900339938 
12.01837657961754 
0.7129642877750747 
-0.6719214420455530 
-1.254477031231382 
1.394848379567319 
8.344982077956650 
-1.732196536321720 
-1.683130791915630 
-1.939743555905648 
-2.964732753099535 
-0.3624908027021057 
2.251923033472132 
0.8467153514004540 
4.794760943417095 
-0.5394304532891987 
1.739028975401318 
9.296161119898635 
2.695006387917557 
0.6043326292554481 
0.1986295352286032 
-1.702417887391127 
4.815724886618522 
-0.8768936740471256 
4.395540392910156 
-1.243334556147519 
2.109245762095758 
2.544200698191324 
-2.324244569582847 
0.2007838437455515 
-0.1938278974749746 
-0.7522961495809340 
-1.922497298509540 
-0.2339055986584693 
-1.860183172744320 
25.45703151772900 
1.068711219850543 
-1.266049398742291 
2.472867965450252 
0.1811037228939244 
7.602924886512914 
-0.3666443494706806 
-1.056219893646215 
-0.4455737115653153 
5.192314177692671 
-0.7852279984235303 
0.7137970599991339 
19.77071509620527 
0.7367204817500361 
0.4742620217759265 
0.6327770270694750 
1.492017575413978 
-6.510353221065222 
-0.2710315408280147 
1.779985912306518 
22.87593560116662 
0 
8.797900261365724 
-0.4523379410463813 
-0.3090505814224556 
3.572332218419398 
-0.008952396938208429 
0.3675281351732975 
-0.5319692243867853 
7.844610285867909 
-1.292778808893139 
1.833623269990351 
-0.5587478490563038 
-1.293223244585654 
-0.4624956897874193 
7.184570082749291 
1.134629363941734 
-0.1432053427620007 
15.67923555534187 
14.96275777665795 
-0.06529285343678360 
2.971052948551774 
-1.943160238367339 
-1.616160603633243 
-1.869733892301061 
0.7047710325454397 
2.188173106954815 
45.05537412162224 
-5.116108042583687 
3.038448161364390 
0.6052549049077877 
1.763980572645197 
2.076400626215907 
6.769807921834190 
4.780448301228522 
-5.416383092530133 
4.292406151153255 
-0.6179374030558761 
7.481937752799392 
-0.1633910232314860 
0.5909095621704747 
4.158462573969989 
54.28039278552446 
5.823676117657981 
3.650121495041685 
1.384564902312948 
58.43712379448861 
5.303437563787194 
2.078125206129126 
-0.07370995379956793 
0.9943178066132573 
1.712750276395517 
2.176561475976506 
-0.8391052172429930 
10.08425004380604 
0.01397022852877848 
10.14578183040159 
0.7408917901709740 
1.996264449174140 
-0.9592875971111645 
1.832327943696319 
0.8869958323529372 
0.8528730622065850 
0.1835124885042316 
1.796368714920822 
0.2291607080820783 
-1.079167397548825 
3.194655925531195 
-3.183373310515321 
11.31430850482397 
1.923940138864927 
1.327354803035774 
-5.270114799932881 
2.260336915131020 
1.549706825927473 
-0.5758202009797898 
-0.2532190193306680 
-6.543029603923642 
6.770748417418107 
3.645920947520021 
0.5887287780154771 
4.210120807768952 
-0.8142393476529280 
-3.074731084205871 
-0.7526609590145142 
4.917178377538151 
0.4370574846313366 
0.5899064982122194 
4.447498027967228 
20.84090965677682 
11.78268026156235 
-0.004460205163103578 
-2.586085548903586 
-0.5616328138858522 
3.268648592796830 
-1.779204259616749 
1.797489722051985 
-0.6397191727593674 
0.07873084907005456 
3.696440881868220 
-0.2921013072400415 
1.446320648216564 
-0.9549459378423871 
0.9395783298740807 
2.481931667224766 
0.4915889648702495 
7.265204680462287 
22.39637600171803 
-1.698246589043502 
-0.3627509067285459 
3.993714708943549 
0.2044764356925165 
-1.597573606821243 
3.060071303836569 
-0.7072780299810989 
-0.9192202890928944 
23.48225561338253 
-1.080792320003237 
-1.391287053010780 
6.854336726390205 
-1.149380337427065 
-1.145496544243438 
-1.380570216986606 
0.9098448642791173 
-0.7956356179582276 
0.9370778095407513 
-5.900390675977915 
0.5774171752569186 
-2.331017901894999 
-0.3920455231007528 
2.283478748572928 
3.448089616616256 
-9.492798214478631 
-1.711064433896421 
-7.910153110979445 
4.952875190565774 
-2.654036828365330 
-2.566288030390290 
-2.502425432729470 
31.84024770915145 
-1.241535009885633 
-0.6232212400878909 
-2.981191654418968 
-4.671540936866236 
-2.891765695682656 
-2.895527568985228 
-8.092523869635647 
30.03927140765548 
-2.997311837945905 
-0.3208530145597324 
2.965821349497304 
-6.454795904128051 
3.722129198611498 
-0.7959595544289438 
-2.149285379463320 
-0.01089266898943117 
-0.1110956477887762 
5.038868060048968 
7.397256400794753 
21.44123533870828 
6.464269744391366 
1.653745718905661 
0.9240621244292415 
5.825816372743176 
1.633571297647455 
0.9135814916062752 
-0.3468472214942345 
1.653829375850004 
-6.301256813430509 
12.19672343534929 
4.125841109634289 
-0.6238222075207142 
5.842285073084659 
1.966908100319366 
-1.489497983645859 
-1.127587560881592 
2.683640985121136 
-2.473288499556756 
-1.761286780698881 
-0.5463352339239919 
5.852426260214106 
1.092003443898304 
0.8531184521432944 
-2.440345142244932 
21.59689490300460 
25.24945055475880 
2.256001156548963 
3.765943688157597 
30.91783080090630 
-1.236978455644199 
1.064966431922384 
21.14751498420864 
0.5381868850028241 
-1.904912344465439 
5.810335593627995 
-1.005510284474114 
0.3308955492234159 
1.885956821511114 
-0.5665840982707194 
-1.139130169026489 
3.401212567079137 
4.589132818600585 
17.11071207970179 
-1.347204456858383 
0.2808070909043876 
-0.8022566930982834 
5.219774972725972 
-1.875994122962276 
13.44245373237592 
2.284914520232737 
-1.531120982151775 
14.52986967572288 
0.3875210297230453 
0.1139544191817975 
-1.010825042629874 
-0.4534448652261020 
0.03959326210740832 
-0.3364397649480683 
4.003718856618277 
-0.2105043893693111 
0.3271586450646338 
1.230668847070243 
13.80663741049120 
-1.811084067859816 
-1.613973395289923 
-2.209027753394556 
0.9953175994244584 
-0.1518395564186909 
4.450988101168086 
-0.5387664766358677 
-1.165532399142920 
2.439323782490607 
8.443936101164166 
0.2420452565474793 
1.978016907838267 
-0.3567694099346208 
13.72797930011081 
1.277054671310669 
-0.5984963377420222 
0.6028507715641813 
-0.9046116590686932 
0.6877864323941950 
-1.190921002678881 
15.85927898890741 
3.505553407546906 
44.09294593949309 
-1.147698150421975 
-1.084718408115637 
5.364169092020720 
1.935557637612813 
0.2957408054877276 
3.101611631547584 
-0.4015714444942741 
0.3158614661215465 
8.060076880581363 
-0.5025857839114602 
3.066053626045505 
-2.507121493507345 
-1.195509134760865 
1.653402121654974 
0.6790446138756586 
10.98225457112148 
1.794127662063738 
-0.4177220250439467 
3.886497861695215 
2.748979961907623 
-0.5158053069490424 
-0.5949226178966862 
46.88191160270604 
0.7297182661223324 
-8.760805155265580 
1.888199816198531 
11.96599071575941 
4.638802501805021 
3.883578716433612 
1.717010226485378 
-2.611141772528577 
3.679661241556179 
-1.142310148199759 
0.4749644476810953 
-1.502022242426067 
-0.9162614082662335 
3.601252113493429 
2.166317000430711 
-2.218864613237278 
3.903577472751746 
-2.113751169380254 
-0.5912001245317050 
0.5678802321720954 
1.416922316354621 
8.716168617589664 
-1.891984144368616 
-2.520678666570596 
-0.9136288755845314 
6.225422088568458 
-1.918199275728520 
5.882631373784920 
3.112454786174513 
0.6074621268266902 
2.951931110545972 
43.98298685112281 
3.416285041935437 
-2.303890837854802 
-2.986395427447391 
2.009081367218200 
7.811149968538349 
-2.119523372035177 
-0.4646719056805156 
0.7696287588158688 
-1.328906212906716 
14.14785857645906 
10.64829732554542 
2.190432690635277 
1.547396112810391 
0.1523555596826481 
1.560869369725831 
13.76321407300269 
2.640412410621827 
-1.080661285494876 
0.8388446245413615 
-2.863306218032216 
4.717664491963416 
1.177560572783821 
-1.393051330004230 
0.4290858929575371 
40.17920294536773 
1.269195772886090 
4.153445777846716 
1.120429979769115 
1.638957337286814 
27.26630321578422 
1.154293735053888 
2.436127940949894 
3.539393557061262 
17.83461032724440 
6.726352910511283 
-0.2870187675755911 
0.3342544256288909 
2.435605981128878 
-0.3546687349332446 
1.087857088153397 
3.055733875209655 
4.496195035672029 
-0.5788272134322244 
1.901966086912420 
13.47045956080392 
-1.497932311177204 
4.394635824486571 
-9.007454857991576 
4.456523558020394 
-0.7021248501152223 
0.3041496338145611 
1.820604704312601 
1.152385138919192 
1.114099653009529 
-2.206629883925230 
3.281014207862997 
-1.637094680782401 
-1.020701768780651 
1.981128129664013 
-1.415361007375252 
0.2890217274750772 
-0.9967593332069197 
2.313016542388579 
19.03786213079117 
2.179317492154873 
6.878330930369624 
5.724067905911999 
3.673530492214232 
9.815013199808229 
2.083821492979756 
23.74992819694037 
4.880490688904471 
52.87322132110982 
0.6073266933785726 
-2.089263302828670 
5.913834066908360 
-1.919397359932709 
22.41106682520974 
1.604994313293198 
1.220838643563352 
2.835902205422589 
7.787569326716869 
-0.8552114831338190 
-0.1488871686033612 
1.132513151164261 
-3.638873920407403 
-10.52326071794361 
-0.2137125376007937 
0.5755641528394314 
0.2412877594327761 
-1.226737912663823 
-0.1918349280475010 
49.03997829012073 
1.304094014689243 
-0.1686033005634415 
6.165458520132907 
1.739297408949108 
12.12389759403840 
-0.8961828541827312 
4.563150696457029 
10.64079827062436 
0.2214586645472753 
-7.647116889508620 
-1.454332928512148 
5.090863012422171 
4.163053436859371 
8.882908875872394 
50.23153973896027 
-1.115584830336711 
11.59886467694754 
-1.731079759768549 
-3.160150781266107 
4.010939308963684 
13.22075020159188 
0.3293871090484390 
1.763696681585608 
-1.921736267820848 
-0.3865055292051675 
-9.182590883841408 
31.81799081036171 
2.185051560031458 
0.8183199206802709 
6.628730378826981 
-0.1147374114929032 
2.298028433024886 
15.91847564780524 
-5.941461124442796 
5.159031239146335 
24.70835676928100 
4.692057304607262 
-2.562239113112089 
2.777899284026951 
-2.978661001412988 
-1.070119184822835 
0.4705204303448635 
0.9960618341805698 
2.303943159001376 
-0.4649725172475871 
-0.2317971616311863 
-5.798042441111986 
3.896961448851743 
2.769689063203324 
-3.051526135789268 
1.889658411294599 
0.2971716874651101 
0.4656550020650362 
-0.01071990572293238 
0.4005743302157181 
-0.1486030471241799 
0.4388446587682904 
-1.276279433025233 
2.149613282756523 
-9.652541035626614 
-14.48800449942931 
-7.178653621721804 
-6.595182150601773 
-6.409836618147763 
-0.9318951660712361 
3.528626675123317 
-8.326090882683154 
-6.345163960397903 
-5.249387631794909 
-6.706721979004177 
-7.438755211536142 
-6.958363782693525 
-2.463750816255745 
-7.481953443112392 
-8.318807570860281 
3.551414194964507 
-4.875782489963742 
-1.471505315364542 
-5.489346729639047 
-8.491642630904941 
-8.738993512927054 
-6.616653939602715 
-8.617652149944158 
-0.5265103636799594 
-5.239291321241482 
1.190213970002828 
-10.75159674771198 
-14.47028337728621 
-10.12418877911595 
1.312628261450214 
6.271711662015566 
18.20539635800379 
9.584510736244669 
5.898591447461767 
18.38414639348275 
2.203413980453368 
1.175484990103846 
1.151272191293416 
-5.581730780266532 
4.463379544234793 
-0.7665255337328888 
-1.029761745784627 
-0.4652562109459772 
-2.211797844202941 
4.141604739714131 
-5.053126612385262 
1.543038870964102 
-1.736115466308340 
3.441202835614997 
3.856527757219685 
-0.8245144657065347 
1.298845091635244 
5.518966487824974 
-1.367047777302299 
13.70892859514393 
2.731846349729524 
-1.528076687462076 
-1.810762956741744 
0.7682054001158036 
0.6312218537729710 
6.026897331464918 
21.17018257376748 
5.811210012075593 
-0.4413581410206504 
11.35757425179656 
-0.7009686383463265 
2.992149956704784 
1.897086997471222 
4.260981897662094 
-1.247193036988506 
8.767334462316200 
1.405338217184685 
0.2183874121204848 
-6.826917439945362 
-5.967218316715273 
-0.3938621916622332 
6.141615809457049 
-1.058337198363686 
0.2804921112531577 
2.955639022617954 
5.732309485027813 
0.6408975767024910 
11.41075948378511 
-1.359228501630440 
0.9326024364161476 
1.219552118180843 
6.864882765342543 
2.059251034331530 
-0.7875320848399066 
0.9094095684577375 
1.512065185025530 
5.909621002076868 
-1.535305460207902 
2.293549107964778 
4.510819496203851 
-0.6772445838093518 
-2.964854615032975 
12.82949302722727 
6.137039570751067 
3.062034043141651 
2.825895102262799 
3.768097154527387 
4.020363269424056 
1.858754474735154 
-0.6497921487293550 
-1.354158209966104 
2.491745472475966 
8.907984810598725 
41.02796959160731 
-1.653323586678743 
2.777374040493598 
-1.156659183723487 
-4.226140499486460 
19.08233376805619 
2.615331413748092 
19.71497201820925 
2.621813509119126 
-0.5662130027097116 
2.211394804880842 
4.304568244772745 
2.586231591451480 
44.94848866974176 
-1.649866978161104 
1.119933471802665 
-0.06562741694632361 
2.191564280608553 
8.639158905818302 
-2.243065339537524 
-0.7783011444722923 
-5.513055764856080 
-0.5381204929679753 
9.530120442522710 
4.959021246942552 
4.050914857352296 
-2.148866978109662 
-1.239798998491353 
21.72614079807685 
4.088181046341401 
20.06684497960694 
0.8558790109057902 
3.060945586901355 
1.923364678902356 
2.805123035190435 
6.495606112585696 
0.2228173291146273 
9.179615942886462 
1.141480465687533 
11.56939605840199 
3.659697407010846 
6.417429528998067 
0.2869164959190721 
40.49416958105243 
1.123065309957700 
0.06336530229263518 
-0.9545905090037334 
-0.8174767799904862 
7.228333761207293 
2.589933884235837 
-1.689471082056191 
0.003787857069495824 
-0.0009469568088937286 
3.581310307210932 
5.547262655856487 
5.039670746704535 
-0.07335001771911803 
1.792674180447060 
0.3281385623122698 
-1.876801331238033 
-0.7417224046653964 
1.407566172249077 
11.57801355907566 
10.85608910531076 
0.1892541623668720 
-1.888948409046414 
-1.557876585188208 
18.63803011573068 
0.2060969167832190 
-0.005627742099530209 
8.250535421217501 
12.81873008989300 
-0.2720903999218363 
0.9621365959108559 
1.747750508223179 
3.047973983998941 
1.684574558493251 
36.18661744528856 
2.875433941054519 
-7.033160106356689 
-3.876077758595778 
-5.480705154051733 
-6.920497217244800 
-11.54171515534766 
-18.76560886884859 
-1.100072119186850 
1.951186772206501 
4.486664103446004 
25.41649533067296 
1.075728915693165 
2.737197722189245 
18.14900185592930 
-0.1555622527029603 
2.073793739608448 
0.6838762875980999 
0.8923025434362980 
4.077814818855916 
0.5579116913388739 
-4.588499383619008 
4.203937939948223 
-0.5497427909987386 
2.024990921349394 
7.501383920701286 
2.413309272890349 
-0.9051752436915629 
2.431854532122104 
-2.309700044072186 
-2.286096927225583 
2.488541400822123 
-0.09046180092644330 
33.36939628938985 
26.47958870456154 
27.75415598888811 
0.4959029421023379 
-4.152367391088072 
-8.466028846608705 
3.306577398591497 
3.241182780668953 
2.413379707775559 
3.598443790289720 
0.3827403307176620 
2.397146010254577 
-1.306900740722607 
-6.711314291536803 
20.29047269811004 
1.820917454562595 
-1.108767994961625 
-1.842057301968394 
-0.4643169905680879 
2.376251234415287 
3.054312386106779 
5.633790693729967 
-1.319609385591077 
-0.9784630977020488 
1.038457028240846 
-3.167078066499620 
2.654881706354350 
0.4432170723360523 
5.388523516083208 
0.9215715811574501 
-0.6421983760874509 
60.10675330910136 
-0.5968979459723844 
-0.6046495971617235 
1.157262011926478 
20.09299786687611 
13.91339424395270 
3.342941267297391 
-0.8995399236299473 
-2.433371307226469 
-5.527238587433292 
1.638307295956689 
-7.341717315422643 
1.389901405111668 
17.65269206411081 
0.2309767494290317 
-0.001889798670436090 
0.3479966210266265 
7.980491374245134 
7.727612083562526 
4.662336483068774 
5.631733209395470 
2.310428099282038 
-7.008143383848441 
42.89112452974842 
0.8605259705929716 
-0.06681714412757793 
-1.331385799398990 
-6.321937094831463 
8.626860498381703 
-3.061535830807960 
55.73147581985095 
-6.771331607673209 
-4.994341725396120 
1.353674928597222 
2.346855342446758 
-5.960287501574955 
2.347885612158999 
1.450995321256508 
6.419850167652095 
1.607757827664314 
1.329710014871222 
-4.388444228291639 
-10.99773389415284 
-6.641683513407883 
9.016671242709537 
-6.586105052369501 
-6.936089550514820 
-4.012435808846036 
3.605952086645542 
-9.927853575851401 
-4.075407913593316 
15.08676969571357 
-7.775827164658283 
1.960851375661173 
18.05782604120090 
-5.442184704531072 
-8.066192226392273 
